FANN_FLO_2.1
num_layers=3
learning_rate=0.700000
connection_rate=1.000000
network_type=0
learning_momentum=0.000000
training_algorithm=2
train_error_function=1
train_stop_function=0
cascade_output_change_fraction=0.010000
quickprop_decay=-0.000100
quickprop_mu=1.750000
rprop_increase_factor=1.200000
rprop_decrease_factor=0.500000
rprop_delta_min=0.000000
rprop_delta_max=50.000000
rprop_delta_zero=0.100000
cascade_output_stagnation_epochs=12
cascade_candidate_change_fraction=0.010000
cascade_candidate_stagnation_epochs=12
cascade_max_out_epochs=150
cascade_max_cand_epochs=150
cascade_num_candidate_groups=2
bit_fail_limit=3.49999999999999977796e-01
cascade_candidate_limit=1.00000000000000000000e+03
cascade_weight_multiplier=4.00000000000000022204e-01
cascade_activation_functions_count=10
cascade_activation_functions=3 5 7 8 10 11 14 15 16 17 
cascade_activation_steepnesses_count=4
cascade_activation_steepnesses=2.50000000000000000000e-01 5.00000000000000000000e-01 7.50000000000000000000e-01 1.00000000000000000000e+00 
layer_sizes=5 5 4 
scale_included=0
neurons (num_inputs, activation_function, activation_steepness)=(0, 0, 0.00000000000000000000e+00) (0, 0, 0.00000000000000000000e+00) (0, 0, 0.00000000000000000000e+00) (0, 0, 0.00000000000000000000e+00) (0, 0, 0.00000000000000000000e+00) (5, 6, 5.00000000000000000000e-01) (5, 6, 5.00000000000000000000e-01) (5, 6, 5.00000000000000000000e-01) (5, 6, 5.00000000000000000000e-01) (0, 6, 0.00000000000000000000e+00) (5, 6, 5.00000000000000000000e-01) (5, 6, 5.00000000000000000000e-01) (5, 6, 5.00000000000000000000e-01) (0, 6, 0.00000000000000000000e+00) 
connections (connected_to_neuron, weight)=(0, -2.82598768311773274053e-01) (1, -3.83206274695164050836e-01) (2, 3.34642285470812927972e-01) (3, 4.56733114365443060301e-01) (4, 1.13617433577260307578e-03) (0, 1.84500995395187689097e-01) (1, -2.52085905131176957195e-01) (2, 3.37052988728183344769e-01) (3, 6.63544149800615823409e-01) (4, -3.67489011092843975703e+00) (0, -8.52221158207523143968e-02) (1, 6.69351106685271091123e-01) (2, -7.10129231209903011290e-01) (3, -8.50469099798402683454e-01) (4, 7.05296347928456079934e-01) (0, 2.20999108973583417992e+01) (1, 1.24615215525898392457e+02) (2, 7.16736655976771275256e-01) (3, 1.69534517912764015612e+00) (4, 1.45952350390419072212e+00) (5, 3.34240844936374571716e+02) (6, 3.34079254803071364677e+02) (7, 1.00092621519229396654e+03) (8, 3.25392178619024662112e+02) (9, 3.25514502739277986620e+02) (5, 1.53313432626057775110e+01) (6, -1.20175874411739922465e+01) (7, -2.59268895173129232390e+00) (8, -2.10956908974163970250e-01) (9, -1.52957383723188403840e-02) (5, 4.52145295207580829810e+02) (6, 8.14522588213216977238e+02) (7, 9.30683455891385875702e+01) (8, 3.92759610390858560081e+00) (9, 9.51222682826323051586e+00) 
